{"data":"{\"post_stream\":{\"posts\":[{\"id\":3164239,\"name\":\"Jack\",\"username\":\"jdrevnyak\",\"avatar_template\":\"/letter_avatar_proxy/v4/letter/j/76d3ee/{size}.png\",\"created_at\":\"2023-03-14T05:10:42.421Z\",\"cooked\":\"\\u003cp\\u003eHi, I just got started with RobotPY and am writing a vision processing program. I created a file called vision.py and imported cscore which has OpenCV bundled in it, this is downloaded and installed on the robot. I am getting an a sqiggle error on “import cv2” and an error in the log.\\u003c/p\\u003e\\n\\u003cblockquote\\u003e\\n\\u003cp\\u003eFile “/home/lvuser/py/vision.py”, line 6, in  ﻿\\u003cbr\\u003e\\n﻿﻿﻿﻿﻿﻿     import cv2 ﻿\\u003cbr\\u003e\\n﻿﻿﻿﻿﻿﻿ ImportError: libopencv_ml.so.406: cannot open shared object file: No such file or directory\\u003c/p\\u003e\\n\\u003c/blockquote\\u003e\\n\\u003cp\\u003eHere is my vision.py code as well anyone know the issue?\\u003c/p\\u003e\\n\\u003cblockquote\\u003e\\n\\u003ch1\\u003eImport the camera server\\u003c/h1\\u003e\\n\\u003cp\\u003eimport ntcore\\u003cbr\\u003e\\nfrom cscore import CameraServer\\u003c/p\\u003e\\n\\u003ch1\\u003eImport OpenCV and NumPy\\u003c/h1\\u003e\\n\\u003cp\\u003eimport numpy as np\\u003cbr\\u003e\\nimport cv2\\u003c/p\\u003e\\n\\u003cp\\u003edef main():\\u003cbr\\u003e\\n# Initialize ntcore\\u003cbr\\u003e\\ninst = ntcore.NetworkTableInstance.getDefault()\\u003cbr\\u003e\\ninst.startClientTeam(1537)\\u003c/p\\u003e\\n\\u003cpre\\u003e\\u003ccode\\u003e# Connect to the Limelight network table\\nlimelight_table = inst.getTable('limelight')\\n\\n# Set Limelight pipeline to use\\nlimelight_table.putNumber('pipeline', 0)\\n\\n# Set Limelight LEDs to off\\nlimelight_table.putNumber('ledMode', 1)\\n\\ncs = CameraServer.getInstance()\\ncs.enableLogging()\\n\\n# Get a CvSink. This will capture images from the camera\\ncvSink = cs.getVideo()\\n\\n# (optional) Setup a CvSource. This will send images back to the Dashboard\\noutputStream = cs.putVideo(\\\"Processed Video\\\", 320, 240)\\n\\n\\nimg = np.zeros(shape=(240, 320, 3), dtype=np.uint8)\\n\\n# Initialize HOG descriptor for people detection\\nhog = cv2.HOGDescriptor()\\nhog.setSVMDetector(cv2.HOGDescriptor_getDefaultPeopleDetector())\\n\\nwhile True:\\n    # Tell the CvSink to grab a frame from the camera and put it\\n    # in the source image.  If there is an error notify the output.\\n    time, img = cvSink.grabFrame(img)\\n    if time == 0:\\n        # Send the output the error.\\n        outputStream.notifyError(cvSink.getError())\\n        # skip the rest of the current iteration\\n        continue\\n\\n    # Flip the image horizontally for correct orientation\\n    img = cv2.flip(img, 1)\\n\\n    # Perform people detection using HOG descriptor\\n    found, _ = hog.detectMultiScale(img)\\n\\n    # Draw bounding boxes around detected people\\n    for (x, y, w, h) in found:\\n        cv2.rectangle(img, (x, y), (x + w, y + h), (0, 255, 0), 2)\\n\\n    # (optional) send some image back to the dashboard\\n    outputStream.putFrame(img)\\n\\u003c/code\\u003e\\u003c/pre\\u003e\\n\\u003c/blockquote\\u003e\",\"post_number\":1,\"post_type\":1,\"posts_count\":10,\"updated_at\":\"2023-03-14T05:10:42.421Z\",\"reply_count\":2,\"reply_to_post_number\":null,\"quote_count\":0,\"incoming_link_count\":138,\"reads\":63,\"readers_count\":62,\"score\":712.6,\"yours\":false,\"topic_id\":430205,\"topic_slug\":\"help-with-opencv-in-robotpy\",\"display_username\":\"Jack\",\"primary_group_name\":null,\"flair_name\":null,\"flair_url\":null,\"flair_bg_color\":null,\"flair_color\":null,\"flair_group_id\":null,\"badges_granted\":[],\"version\":1,\"can_edit\":false,\"can_delete\":false,\"can_recover\":false,\"can_see_hidden_post\":true,\"can_wiki\":false,\"read\":true,\"user_title\":null,\"bookmarked\":false,\"actions_summary\":[],\"moderator\":false,\"admin\":false,\"staff\":false,\"user_id\":46258,\"hidden\":false,\"trust_level\":1,\"deleted_at\":null,\"user_deleted\":false,\"edit_reason\":null,\"can_view_edit_history\":true,\"wiki\":false,\"post_url\":\"/t/help-with-opencv-in-robotpy/430205/1\",\"custom_user_title\":null,\"reactions\":[],\"current_user_reaction\":null,\"reaction_users_count\":0,\"current_user_used_main_reaction\":false,\"can_accept_answer\":false,\"can_unaccept_answer\":false,\"accepted_answer\":false,\"topic_accepted_answer\":null,\"can_vote\":false},{\"id\":3164250,\"name\":\"Noelle\",\"username\":\"No767\",\"avatar_template\":\"/user_avatar/www.chiefdelphi.com/no767/{size}/231760_2.png\",\"created_at\":\"2023-03-14T06:28:04.619Z\",\"cooked\":\"\\u003cp\\u003eI may be incorrect, but i suspect the issue is that the libopencv-ml-dev package is not installed. can you verify if those are installed or not ? also the sqiggle error probably has to do w/ vsc not importing it iirc (restart vsc and see if that fixes it or not).\\u003c/p\\u003e\",\"post_number\":2,\"post_type\":1,\"posts_count\":10,\"updated_at\":\"2023-03-14T06:28:04.619Z\",\"reply_count\":0,\"reply_to_post_number\":null,\"quote_count\":0,\"incoming_link_count\":3,\"reads\":50,\"readers_count\":49,\"score\":25.0,\"yours\":false,\"topic_id\":430205,\"topic_slug\":\"help-with-opencv-in-robotpy\",\"display_username\":\"Noelle\",\"primary_group_name\":null,\"flair_name\":null,\"flair_url\":null,\"flair_bg_color\":null,\"flair_color\":null,\"flair_group_id\":null,\"badges_granted\":[],\"version\":1,\"can_edit\":false,\"can_delete\":false,\"can_recover\":false,\"can_see_hidden_post\":true,\"can_wiki\":false,\"read\":true,\"user_title\":\"\",\"bookmarked\":false,\"actions_summary\":[],\"moderator\":false,\"admin\":false,\"staff\":false,\"user_id\":51415,\"hidden\":false,\"trust_level\":2,\"deleted_at\":null,\"user_deleted\":false,\"edit_reason\":null,\"can_view_edit_history\":true,\"wiki\":false,\"user_custom_fields\":{\"user_field_4\":\"5507 Mentor \\u0026 Alumni\"},\"post_url\":\"/t/help-with-opencv-in-robotpy/430205/2\",\"custom_user_title\":\"5507 Mentor \\u0026 Alumni\",\"reactions\":[],\"current_user_reaction\":null,\"reaction_users_count\":0,\"current_user_used_main_reaction\":false,\"can_accept_answer\":false,\"can_unaccept_answer\":false,\"accepted_answer\":false,\"topic_accepted_answer\":null},{\"id\":3164278,\"name\":\"Davo\",\"username\":\"auscompgeek\",\"avatar_template\":\"/user_avatar/www.chiefdelphi.com/auscompgeek/{size}/9867_2.png\",\"created_at\":\"2023-03-14T10:26:14.568Z\",\"cooked\":\"\\u003cp\\u003eLooks like the RobotPy roborio-opencv packaging is broken. We’ll look into it.\\u003c/p\\u003e\\n\\u003cp\\u003eI’m surprised this didn’t come up earlier.\\u003c/p\\u003e\",\"post_number\":3,\"post_type\":1,\"posts_count\":10,\"updated_at\":\"2023-03-14T10:26:14.568Z\",\"reply_count\":1,\"reply_to_post_number\":null,\"quote_count\":0,\"incoming_link_count\":0,\"reads\":46,\"readers_count\":45,\"score\":14.2,\"yours\":false,\"topic_id\":430205,\"topic_slug\":\"help-with-opencv-in-robotpy\",\"display_username\":\"Davo\",\"primary_group_name\":null,\"flair_name\":null,\"flair_url\":null,\"flair_bg_color\":null,\"flair_color\":null,\"flair_group_id\":null,\"badges_granted\":[],\"version\":1,\"can_edit\":false,\"can_delete\":false,\"can_recover\":false,\"can_see_hidden_post\":true,\"can_wiki\":false,\"read\":true,\"user_title\":\"\",\"bookmarked\":false,\"actions_summary\":[],\"moderator\":false,\"admin\":false,\"staff\":false,\"user_id\":31229,\"hidden\":false,\"trust_level\":2,\"deleted_at\":null,\"user_deleted\":false,\"edit_reason\":null,\"can_view_edit_history\":true,\"wiki\":false,\"user_custom_fields\":{\"user_field_4\":\"4774 mentor, RobotPy dev, CSA/RI\"},\"post_url\":\"/t/help-with-opencv-in-robotpy/430205/3\",\"custom_user_title\":\"4774 mentor, RobotPy dev, CSA/RI\",\"reactions\":[],\"current_user_reaction\":null,\"reaction_users_count\":0,\"current_user_used_main_reaction\":false,\"can_accept_answer\":false,\"can_unaccept_answer\":false,\"accepted_answer\":false,\"topic_accepted_answer\":null},{\"id\":3164279,\"name\":\"Davo\",\"username\":\"auscompgeek\",\"avatar_template\":\"/user_avatar/www.chiefdelphi.com/auscompgeek/{size}/9867_2.png\",\"created_at\":\"2023-03-14T10:29:28.144Z\",\"cooked\":\"\\u003caside class=\\\"quote no-group\\\" data-username=\\\"jdrevnyak\\\" data-post=\\\"1\\\" data-topic=\\\"430205\\\"\\u003e\\n\\u003cdiv class=\\\"title\\\"\\u003e\\n\\u003cdiv class=\\\"quote-controls\\\"\\u003e\\u003c/div\\u003e\\n\\u003cimg loading=\\\"lazy\\\" alt=\\\"\\\" width=\\\"24\\\" height=\\\"24\\\" src=\\\"https://www.chiefdelphi.com/letter_avatar_proxy/v4/letter/j/76d3ee/48.png\\\" class=\\\"avatar\\\"\\u003e jdrevnyak:\\u003c/div\\u003e\\n\\u003cblockquote\\u003e\\n\\u003cp\\u003eI am getting an a sqiggle error on “import cv2”\\u003c/p\\u003e\\n\\u003c/blockquote\\u003e\\n\\u003c/aside\\u003e\\n\\u003cp\\u003eFWIW the reason you’re seeing a red squiggly would be because you don’t have OpenCV installed in your development environment. Your editor won’t know what’s installed on your robot.\\u003c/p\\u003e\",\"post_number\":4,\"post_type\":1,\"posts_count\":10,\"updated_at\":\"2023-03-14T10:29:28.144Z\",\"reply_count\":0,\"reply_to_post_number\":null,\"quote_count\":1,\"incoming_link_count\":0,\"reads\":43,\"readers_count\":42,\"score\":8.6,\"yours\":false,\"topic_id\":430205,\"topic_slug\":\"help-with-opencv-in-robotpy\",\"display_username\":\"Davo\",\"primary_group_name\":null,\"flair_name\":null,\"flair_url\":null,\"flair_bg_color\":null,\"flair_color\":null,\"flair_group_id\":null,\"badges_granted\":[],\"version\":1,\"can_edit\":false,\"can_delete\":false,\"can_recover\":false,\"can_see_hidden_post\":true,\"can_wiki\":false,\"read\":true,\"user_title\":\"\",\"bookmarked\":false,\"actions_summary\":[{\"id\":2,\"count\":1}],\"moderator\":false,\"admin\":false,\"staff\":false,\"user_id\":31229,\"hidden\":false,\"trust_level\":2,\"deleted_at\":null,\"user_deleted\":false,\"edit_reason\":null,\"can_view_edit_history\":true,\"wiki\":false,\"user_custom_fields\":{\"user_field_4\":\"4774 mentor, RobotPy dev, CSA/RI\"},\"post_url\":\"/t/help-with-opencv-in-robotpy/430205/4\",\"custom_user_title\":\"4774 mentor, RobotPy dev, CSA/RI\",\"reactions\":[{\"id\":\"point_up\",\"type\":\"emoji\",\"count\":1}],\"current_user_reaction\":null,\"reaction_users_count\":1,\"current_user_used_main_reaction\":false,\"can_accept_answer\":false,\"can_unaccept_answer\":false,\"accepted_answer\":false,\"topic_accepted_answer\":null},{\"id\":3164349,\"name\":\"Jack\",\"username\":\"jdrevnyak\",\"avatar_template\":\"/letter_avatar_proxy/v4/letter/j/76d3ee/{size}.png\",\"created_at\":\"2023-03-14T13:55:27.431Z\",\"cooked\":\"\\u003cp\\u003eThank you so much, is there a work around to installing OpenCV separately?\\u003c/p\\u003e\",\"post_number\":5,\"post_type\":1,\"posts_count\":10,\"updated_at\":\"2023-03-14T13:55:27.431Z\",\"reply_count\":1,\"reply_to_post_number\":3,\"quote_count\":0,\"incoming_link_count\":1,\"reads\":35,\"readers_count\":34,\"score\":17.0,\"yours\":false,\"topic_id\":430205,\"topic_slug\":\"help-with-opencv-in-robotpy\",\"display_username\":\"Jack\",\"primary_group_name\":null,\"flair_name\":null,\"flair_url\":null,\"flair_bg_color\":null,\"flair_color\":null,\"flair_group_id\":null,\"badges_granted\":[],\"version\":1,\"can_edit\":false,\"can_delete\":false,\"can_recover\":false,\"can_see_hidden_post\":true,\"can_wiki\":false,\"read\":true,\"user_title\":null,\"reply_to_user\":{\"id\":31229,\"username\":\"auscompgeek\",\"name\":\"Davo\",\"avatar_template\":\"/user_avatar/www.chiefdelphi.com/auscompgeek/{size}/9867_2.png\"},\"bookmarked\":false,\"actions_summary\":[],\"moderator\":false,\"admin\":false,\"staff\":false,\"user_id\":46258,\"hidden\":false,\"trust_level\":1,\"deleted_at\":null,\"user_deleted\":false,\"edit_reason\":null,\"can_view_edit_history\":true,\"wiki\":false,\"post_url\":\"/t/help-with-opencv-in-robotpy/430205/5\",\"custom_user_title\":null,\"reactions\":[],\"current_user_reaction\":null,\"reaction_users_count\":0,\"current_user_used_main_reaction\":false,\"can_accept_answer\":false,\"can_unaccept_answer\":false,\"accepted_answer\":false,\"topic_accepted_answer\":null},{\"id\":3164457,\"name\":\"Dustin Spicuzza\",\"username\":\"virtuald\",\"avatar_template\":\"/user_avatar/www.chiefdelphi.com/virtuald/{size}/65268_2.png\",\"created_at\":\"2023-03-14T15:37:47.520Z\",\"cooked\":\"\\u003caside class=\\\"quote no-group quote-modified\\\" data-username=\\\"jdrevnyak\\\" data-post=\\\"5\\\" data-topic=\\\"430205\\\"\\u003e\\n\\u003cdiv class=\\\"title\\\"\\u003e\\n\\u003cdiv class=\\\"quote-controls\\\"\\u003e\\u003c/div\\u003e\\n\\u003cimg loading=\\\"lazy\\\" alt=\\\"\\\" width=\\\"24\\\" height=\\\"24\\\" src=\\\"https://www.chiefdelphi.com/letter_avatar_proxy/v4/letter/j/76d3ee/48.png\\\" class=\\\"avatar\\\"\\u003e jdrevnyak:\\u003c/div\\u003e\\n\\u003cblockquote\\u003e\\n\\u003cp\\u003eIs there a work around to installing OpenCV separately\\u003c/p\\u003e\\n\\u003c/blockquote\\u003e\\n\\u003c/aside\\u003e\\n\\u003cp\\u003eThere is a way to do it, but it’s probably the same amount of work as just fixing our package. \\u003cimg src=\\\"https://www.chiefdelphi.com/images/emoji/google/slight_smile.png?v=12\\\" title=\\\":slight_smile:\\\" class=\\\"emoji\\\" alt=\\\":slight_smile:\\\" loading=\\\"lazy\\\" width=\\\"20\\\" height=\\\"20\\\"\\u003e\\u003c/p\\u003e\\n\\u003cp\\u003eI pushed a new version and tested it on my roborio at home, it should work for you:\\u003c/p\\u003e\\n\\u003cpre\\u003e\\u003ccode class=\\\"lang-auto\\\"\\u003erobotpy-installer download robotpy-opencv==4.6.0+r2\\nrobotpy-installer install robotpy-opencv\\n\\u003c/code\\u003e\\u003c/pre\\u003e\\n\\u003caside class=\\\"quote no-group\\\" data-username=\\\"jdrevnyak\\\" data-post=\\\"1\\\" data-topic=\\\"430205\\\"\\u003e\\n\\u003cdiv class=\\\"title\\\"\\u003e\\n\\u003cdiv class=\\\"quote-controls\\\"\\u003e\\u003c/div\\u003e\\n\\u003cimg loading=\\\"lazy\\\" alt=\\\"\\\" width=\\\"24\\\" height=\\\"24\\\" src=\\\"https://www.chiefdelphi.com/letter_avatar_proxy/v4/letter/j/76d3ee/48.png\\\" class=\\\"avatar\\\"\\u003e jdrevnyak:\\u003c/div\\u003e\\n\\u003cblockquote\\u003e\\n\\u003cp\\u003eI am getting an a sqiggle error on “import cv2”\\u003c/p\\u003e\\n\\u003c/blockquote\\u003e\\n\\u003c/aside\\u003e\\n\\u003cp\\u003eIf you want to install OpenCV locally, I recommend using pip to install opencv-python. It works well on most desktop platforms.\\u003c/p\\u003e\",\"post_number\":6,\"post_type\":1,\"posts_count\":10,\"updated_at\":\"2023-03-14T15:37:47.520Z\",\"reply_count\":1,\"reply_to_post_number\":5,\"quote_count\":2,\"incoming_link_count\":0,\"reads\":36,\"readers_count\":35,\"score\":12.2,\"yours\":false,\"topic_id\":430205,\"topic_slug\":\"help-with-opencv-in-robotpy\",\"display_username\":\"Dustin Spicuzza\",\"primary_group_name\":null,\"flair_name\":null,\"flair_url\":null,\"flair_bg_color\":null,\"flair_color\":null,\"flair_group_id\":null,\"badges_granted\":[],\"version\":1,\"can_edit\":false,\"can_delete\":false,\"can_recover\":false,\"can_see_hidden_post\":true,\"can_wiki\":false,\"read\":true,\"user_title\":\"\",\"bookmarked\":false,\"actions_summary\":[],\"moderator\":false,\"admin\":false,\"staff\":false,\"user_id\":11063,\"hidden\":false,\"trust_level\":2,\"deleted_at\":null,\"user_deleted\":false,\"edit_reason\":null,\"can_view_edit_history\":true,\"wiki\":false,\"user_custom_fields\":{\"user_field_4\":\"RobotPy Guy, WPILib Developer\"},\"post_url\":\"/t/help-with-opencv-in-robotpy/430205/6\",\"custom_user_title\":\"RobotPy Guy, WPILib Developer\",\"reactions\":[],\"current_user_reaction\":null,\"reaction_users_count\":0,\"current_user_used_main_reaction\":false,\"can_accept_answer\":false,\"can_unaccept_answer\":false,\"accepted_answer\":false,\"topic_accepted_answer\":null},{\"id\":3164680,\"name\":\"Jack\",\"username\":\"jdrevnyak\",\"avatar_template\":\"/letter_avatar_proxy/v4/letter/j/76d3ee/{size}.png\",\"created_at\":\"2023-03-14T19:18:16.184Z\",\"cooked\":\"\\u003cp\\u003eSo it did download but I’m not sure if there still is anything wrong.\\u003c/p\\u003e\\n\\u003cp\\u003eI am getting this error now when using robot.py and vision.py.\\u003c/p\\u003e\\n\\u003cblockquote\\u003e\\n\\u003cp\\u003e********** Robot program startup complete ********** ﻿\\u003cbr\\u003e\\n﻿﻿﻿﻿﻿﻿ Default DisabledPeriodic() method… Override me! ﻿\\u003cbr\\u003e\\n﻿﻿﻿﻿﻿﻿ Default RobotPeriodic() method… Override me! ﻿\\u003cbr\\u003e\\n﻿﻿﻿﻿﻿﻿ 15:14:39:981 INFO    : nt                  : Got a NT4 connection from 172.22.11.1 port 55801 ﻿\\u003cbr\\u003e\\n﻿﻿﻿﻿﻿﻿ 15:14:39:982 INFO    : nt                  : CONNECTED NT4 client ‘Dashboard@1’ (from 172.22.11.1:55801) ﻿\\u003cbr\\u003e\\n﻿﻿﻿﻿﻿﻿ 15:14:40:615 INFO    : nt                  : starting network client ﻿\\u003cbr\\u003e\\n﻿﻿﻿﻿﻿﻿ 15:14:40:623 INFO    : nt                  : Got a NT4 connection from 127.0.0.1 port 36404 ﻿\\u003cbr\\u003e\\n﻿﻿﻿﻿﻿﻿ 15:14:40:625 INFO    : nt                  : CONNECTED NT4 client ‘cscore@2’ (from 127.0.0.1:36404) ﻿\\u003cbr\\u003e\\n﻿﻿﻿﻿﻿﻿ 15:14:40:628 INFO    : nt                  : CONNECTED NT4 to 127.0.0.1 port 5810 ﻿\\u003cbr\\u003e\\n﻿﻿﻿﻿﻿﻿ 15:14:40:623 INFO    : cscore              : Loading /home/lvuser/py/vision.py (main) ﻿\\u003cbr\\u003e\\n﻿﻿﻿﻿﻿﻿ 15:14:41:624 ﻿ERROR﻿   : cscore              : /home/lvuser/py/vision.py exited unexpectedly ﻿\\u003cbr\\u003e\\n﻿﻿﻿﻿﻿﻿ Traceback (most recent call last): ﻿\\u003cbr\\u003e\\n﻿﻿﻿﻿﻿﻿   File “/usr/local/lib/python3.11/site-packages/cscore/\\u003cstrong\\u003emain\\u003c/strong\\u003e.py”, line 56, in _run_user_thread ﻿\\u003cbr\\u003e\\n﻿﻿﻿﻿﻿﻿     obj() ﻿\\u003cbr\\u003e\\n﻿﻿﻿﻿﻿﻿   File “/home/lvuser/py/vision.py”, line 21, in main ﻿\\u003cbr\\u003e\\n﻿﻿﻿﻿﻿﻿     cs = CameraServer.getInstance() ﻿\\u003cbr\\u003e\\n﻿﻿﻿﻿﻿﻿          ^^^^^^^^^^^^^^^^^^^^^^^^ ﻿\\u003cbr\\u003e\\n﻿﻿﻿﻿﻿﻿ AttributeError: type object ‘cscore._cscore.CameraServer’ has no attribute ‘getInstance’ ﻿\\u003cbr\\u003e\\n﻿﻿﻿﻿﻿﻿ 15:14:41:634 ﻿WARNING﻿ : cscore              : /home/lvuser/py/vision.py exited ﻿\\u003cbr\\u003e\\n﻿﻿﻿﻿﻿﻿ 15:14:41:636 ﻿WARNING﻿ : cscore              : cscore exiting ﻿\\u003cbr\\u003e\\n﻿﻿﻿﻿﻿﻿ 15:14:41:795 INFO    : nt                  : DISCONNECTED NT4 client ‘cscore@2’ (from 127.0.0.1:36404): remote end closed connection ﻿\\u003cbr\\u003e\\n﻿﻿﻿﻿﻿﻿ 15:14:41:796 INFO    : nt                  : NT4 socket error: operation canceled ﻿\\u003cbr\\u003e\\n﻿﻿﻿﻿﻿﻿ 15:14:41:964 ﻿WARNING﻿ : wpilib.cs           : CameraServer process exited with exitcode 0\\u003c/p\\u003e\\n\\u003c/blockquote\\u003e\\n\\u003cp\\u003eI am just copying and pasting the \\u003ca href=\\\"https://github.com/robotpy/examples/tree/main/cscore-intermediate-vision\\\" rel=\\\"noopener nofollow ugc\\\"\\u003ecscore-intermediate-vision\\u003c/a\\u003e so i’m not sure if it’s outdated or there still is an issue.\\u003c/p\\u003e\",\"post_number\":7,\"post_type\":1,\"posts_count\":10,\"updated_at\":\"2023-03-14T19:18:16.184Z\",\"reply_count\":2,\"reply_to_post_number\":6,\"quote_count\":0,\"incoming_link_count\":1,\"reads\":34,\"readers_count\":33,\"score\":21.8,\"yours\":false,\"topic_id\":430205,\"topic_slug\":\"help-with-opencv-in-robotpy\",\"display_username\":\"Jack\",\"primary_group_name\":null,\"flair_name\":null,\"flair_url\":null,\"flair_bg_color\":null,\"flair_color\":null,\"flair_group_id\":null,\"badges_granted\":[],\"version\":1,\"can_edit\":false,\"can_delete\":false,\"can_recover\":false,\"can_see_hidden_post\":true,\"can_wiki\":false,\"link_counts\":[{\"url\":\"https://github.com/robotpy/examples/tree/main/cscore-intermediate-vision\",\"internal\":false,\"reflection\":false,\"title\":\"examples/cscore-intermediate-vision at main · robotpy/examples · GitHub\",\"clicks\":2}],\"read\":true,\"user_title\":null,\"reply_to_user\":{\"id\":11063,\"username\":\"virtuald\",\"name\":\"Dustin Spicuzza\",\"avatar_template\":\"/user_avatar/www.chiefdelphi.com/virtuald/{size}/65268_2.png\"},\"bookmarked\":false,\"actions_summary\":[],\"moderator\":false,\"admin\":false,\"staff\":false,\"user_id\":46258,\"hidden\":false,\"trust_level\":1,\"deleted_at\":null,\"user_deleted\":false,\"edit_reason\":null,\"can_view_edit_history\":true,\"wiki\":false,\"post_url\":\"/t/help-with-opencv-in-robotpy/430205/7\",\"custom_user_title\":null,\"reactions\":[],\"current_user_reaction\":null,\"reaction_users_count\":0,\"current_user_used_main_reaction\":false,\"can_accept_answer\":false,\"can_unaccept_answer\":false,\"accepted_answer\":false,\"topic_accepted_answer\":null},{\"id\":3164683,\"name\":\"Dustin Spicuzza\",\"username\":\"virtuald\",\"avatar_template\":\"/user_avatar/www.chiefdelphi.com/virtuald/{size}/65268_2.png\",\"created_at\":\"2023-03-14T19:20:40.662Z\",\"cooked\":\"\\u003cp\\u003eThe example appears to be out of date, everything is a static method now and there is no getInstance. Here’s the documentation for the CameraServer class:\\u003c/p\\u003e\\n\\u003cp\\u003e\\u003ca href=\\\"https://robotpy.readthedocs.io/projects/cscore/en/stable/cscore/CameraServer.html#cscore.CameraServer\\\" class=\\\"onebox\\\" target=\\\"_blank\\\" rel=\\\"noopener nofollow ugc\\\"\\u003ehttps://robotpy.readthedocs.io/projects/cscore/en/stable/cscore/CameraServer.html#cscore.CameraServer\\u003c/a\\u003e\\u003c/p\\u003e\",\"post_number\":8,\"post_type\":1,\"posts_count\":10,\"updated_at\":\"2023-03-14T19:20:40.662Z\",\"reply_count\":0,\"reply_to_post_number\":7,\"quote_count\":0,\"incoming_link_count\":0,\"reads\":28,\"readers_count\":27,\"score\":5.6,\"yours\":false,\"topic_id\":430205,\"topic_slug\":\"help-with-opencv-in-robotpy\",\"display_username\":\"Dustin Spicuzza\",\"primary_group_name\":null,\"flair_name\":null,\"flair_url\":null,\"flair_bg_color\":null,\"flair_color\":null,\"flair_group_id\":null,\"badges_granted\":[],\"version\":1,\"can_edit\":false,\"can_delete\":false,\"can_recover\":false,\"can_see_hidden_post\":true,\"can_wiki\":false,\"link_counts\":[{\"url\":\"https://robotpy.readthedocs.io/projects/cscore/en/stable/cscore/CameraServer.html#cscore.CameraServer\",\"internal\":false,\"reflection\":false,\"title\":\"CameraServer — RobotPy CSCore 2023.4.2.0 documentation\",\"clicks\":6}],\"read\":true,\"user_title\":\"\",\"reply_to_user\":{\"id\":46258,\"username\":\"jdrevnyak\",\"name\":\"Jack\",\"avatar_template\":\"/letter_avatar_proxy/v4/letter/j/76d3ee/{size}.png\"},\"bookmarked\":false,\"actions_summary\":[],\"moderator\":false,\"admin\":false,\"staff\":false,\"user_id\":11063,\"hidden\":false,\"trust_level\":2,\"deleted_at\":null,\"user_deleted\":false,\"edit_reason\":null,\"can_view_edit_history\":true,\"wiki\":false,\"user_custom_fields\":{\"user_field_4\":\"RobotPy Guy, WPILib Developer\"},\"post_url\":\"/t/help-with-opencv-in-robotpy/430205/8\",\"custom_user_title\":\"RobotPy Guy, WPILib Developer\",\"reactions\":[],\"current_user_reaction\":null,\"reaction_users_count\":0,\"current_user_used_main_reaction\":false,\"can_accept_answer\":false,\"can_unaccept_answer\":false,\"accepted_answer\":false,\"topic_accepted_answer\":null},{\"id\":3165006,\"name\":\"Dustin Spicuzza\",\"username\":\"virtuald\",\"avatar_template\":\"/user_avatar/www.chiefdelphi.com/virtuald/{size}/65268_2.png\",\"created_at\":\"2023-03-15T03:29:34.323Z\",\"cooked\":\"\\u003caside class=\\\"quote no-group\\\" data-username=\\\"jdrevnyak\\\" data-post=\\\"7\\\" data-topic=\\\"430205\\\"\\u003e\\n\\u003cdiv class=\\\"title\\\"\\u003e\\n\\u003cdiv class=\\\"quote-controls\\\"\\u003e\\u003c/div\\u003e\\n\\u003cimg loading=\\\"lazy\\\" alt=\\\"\\\" width=\\\"24\\\" height=\\\"24\\\" src=\\\"https://www.chiefdelphi.com/letter_avatar_proxy/v4/letter/j/76d3ee/48.png\\\" class=\\\"avatar\\\"\\u003e jdrevnyak:\\u003c/div\\u003e\\n\\u003cblockquote\\u003e\\n\\u003cp\\u003eI am just copying and pasting the \\u003ca href=\\\"https://github.com/robotpy/examples/tree/main/cscore-intermediate-vision\\\" rel=\\\"noopener nofollow ugc\\\"\\u003ecscore-intermediate-vision\\u003c/a\\u003e so i’m not sure if it’s outdated or there still is an issue.\\u003c/p\\u003e\\n\\u003c/blockquote\\u003e\\n\\u003c/aside\\u003e\\n\\u003cp\\u003eI just pushed an updated version of that example, it should work now.\\u003c/p\\u003e\",\"post_number\":9,\"post_type\":1,\"posts_count\":10,\"updated_at\":\"2023-03-15T03:29:34.323Z\",\"reply_count\":0,\"reply_to_post_number\":7,\"quote_count\":1,\"incoming_link_count\":0,\"reads\":24,\"readers_count\":23,\"score\":4.8,\"yours\":false,\"topic_id\":430205,\"topic_slug\":\"help-with-opencv-in-robotpy\",\"display_username\":\"Dustin Spicuzza\",\"primary_group_name\":null,\"flair_name\":null,\"flair_url\":null,\"flair_bg_color\":null,\"flair_color\":null,\"flair_group_id\":null,\"badges_granted\":[],\"version\":1,\"can_edit\":false,\"can_delete\":false,\"can_recover\":false,\"can_see_hidden_post\":true,\"can_wiki\":false,\"read\":true,\"user_title\":\"\",\"bookmarked\":false,\"actions_summary\":[],\"moderator\":false,\"admin\":false,\"staff\":false,\"user_id\":11063,\"hidden\":false,\"trust_level\":2,\"deleted_at\":null,\"user_deleted\":false,\"edit_reason\":null,\"can_view_edit_history\":true,\"wiki\":false,\"user_custom_fields\":{\"user_field_4\":\"RobotPy Guy, WPILib Developer\"},\"post_url\":\"/t/help-with-opencv-in-robotpy/430205/9\",\"custom_user_title\":\"RobotPy Guy, WPILib Developer\",\"reactions\":[],\"current_user_reaction\":null,\"reaction_users_count\":0,\"current_user_used_main_reaction\":false,\"can_accept_answer\":false,\"can_unaccept_answer\":false,\"accepted_answer\":false,\"topic_accepted_answer\":null},{\"id\":3332686,\"name\":\"system\",\"username\":\"system\",\"avatar_template\":\"/uploads/default/original/4X/9/3/2/93234578e69f55873c63fc00fe2d0d85f23bce55.png\",\"created_at\":\"2024-03-14T03:29:59.202Z\",\"cooked\":\"\\u003cp\\u003eThis topic was automatically closed 365 days after the last reply. New replies are no longer allowed.\\u003c/p\\u003e\",\"post_number\":10,\"post_type\":3,\"posts_count\":10,\"updated_at\":\"2024-03-14T03:29:59.202Z\",\"reply_count\":0,\"reply_to_post_number\":null,\"quote_count\":0,\"incoming_link_count\":2,\"reads\":6,\"readers_count\":5,\"score\":11.2,\"yours\":false,\"topic_id\":430205,\"topic_slug\":\"help-with-opencv-in-robotpy\",\"display_username\":\"system\",\"primary_group_name\":null,\"flair_name\":null,\"flair_url\":null,\"flair_bg_color\":null,\"flair_color\":null,\"flair_group_id\":null,\"badges_granted\":[],\"version\":1,\"can_edit\":false,\"can_delete\":false,\"can_recover\":false,\"can_see_hidden_post\":true,\"can_wiki\":false,\"read\":true,\"user_title\":\"\",\"bookmarked\":false,\"actions_summary\":[],\"moderator\":true,\"admin\":true,\"staff\":true,\"user_id\":-1,\"hidden\":false,\"trust_level\":4,\"deleted_at\":null,\"user_deleted\":false,\"edit_reason\":null,\"can_view_edit_history\":true,\"wiki\":false,\"action_code\":\"autoclosed.enabled\",\"post_url\":\"/t/help-with-opencv-in-robotpy/430205/10\",\"custom_user_title\":null,\"reactions\":[],\"current_user_reaction\":null,\"reaction_users_count\":0,\"current_user_used_main_reaction\":false,\"can_accept_answer\":false,\"can_unaccept_answer\":false,\"accepted_answer\":false,\"topic_accepted_answer\":null}],\"stream\":[3164239,3164250,3164278,3164279,3164349,3164457,3164680,3164683,3165006,3332686]},\"timeline_lookup\":[[1,943],[6,942],[10,577]],\"suggested_topics\":[{\"fancy_title\":\"Robotpy deploy can\\u0026rsquo;t find \\u0026ldquo;robotpy\\u0026rdquo; file\",\"id\":484657,\"title\":\"Robotpy deploy can't find \\\"robotpy\\\" file\",\"slug\":\"robotpy-deploy-cant-find-robotpy-file\",\"posts_count\":3,\"reply_count\":1,\"highest_post_number\":4,\"image_url\":null,\"created_at\":\"2025-02-01T18:10:26.899Z\",\"last_posted_at\":\"2025-02-01T20:54:40.523Z\",\"bumped\":true,\"bumped_at\":\"2025-02-01T20:54:40.523Z\",\"archetype\":\"regular\",\"unseen\":false,\"pinned\":false,\"unpinned\":null,\"excerpt\":\"According to the documentation, the command you need to run is py -3 -m robotpy deploy, so you’re just missing the -m.\",\"visible\":true,\"closed\":false,\"archived\":false,\"bookmarked\":null,\"liked\":null,\"tags\":[\"help\"],\"tags_descriptions\":{},\"like_count\":1,\"views\":47,\"category_id\":77,\"featured_link\":null,\"has_accepted_answer\":true,\"sidecar_installed\":true,\"include_dominant_colour\":false,\"topic_post_id\":3499239,\"topic_post_liked\":false,\"topic_post_like_count\":1,\"topic_post_can_like\":false,\"topic_post_can_unlike\":false,\"topic_post_bookmarked\":false,\"topic_post_is_current_users\":null,\"topic_post_number\":3,\"topic_post_user\":{\"id\":11063,\"username\":\"virtuald\",\"name\":\"Dustin Spicuzza\",\"avatar_template\":\"/user_avatar/www.chiefdelphi.com/virtuald/{size}/65268_2.png\"},\"posters\":[{\"extras\":\"latest\",\"description\":\"Original Poster, Most Recent Poster\",\"user\":{\"id\":72043,\"username\":\"imart\",\"name\":\"Isaac\",\"avatar_template\":\"/letter_avatar_proxy/v4/letter/i/779978/{size}.png\",\"trust_level\":1}},{\"extras\":null,\"description\":\"Frequent Poster, Accepted Answer\",\"user\":{\"id\":11063,\"username\":\"virtuald\",\"name\":\"Dustin Spicuzza\",\"avatar_template\":\"/user_avatar/www.chiefdelphi.com/virtuald/{size}/65268_2.png\",\"trust_level\":2}}]},{\"fancy_title\":\"Wpilib.simulation robot movement\",\"id\":474161,\"title\":\"Wpilib.simulation robot movement\",\"slug\":\"wpilib-simulation-robot-movement\",\"posts_count\":6,\"reply_count\":3,\"highest_post_number\":6,\"image_url\":null,\"created_at\":\"2024-11-01T14:39:27.055Z\",\"last_posted_at\":\"2024-11-07T14:40:33.305Z\",\"bumped\":true,\"bumped_at\":\"2024-11-07T14:40:33.305Z\",\"archetype\":\"regular\",\"unseen\":false,\"pinned\":false,\"unpinned\":null,\"excerpt\":\"when running the simulation the robot will appear but wont receive any of our inputs. we think that the problem is the physics engine. when we start it the terminal states that there are 2 overrides.…\",\"visible\":true,\"closed\":false,\"archived\":false,\"bookmarked\":null,\"liked\":null,\"tags\":[\"simulation\"],\"tags_descriptions\":{},\"like_count\":0,\"views\":230,\"category_id\":77,\"featured_link\":null,\"has_accepted_answer\":false,\"sidecar_installed\":true,\"include_dominant_colour\":false,\"topic_post_id\":3442505,\"topic_post_liked\":false,\"topic_post_can_like\":false,\"topic_post_can_unlike\":false,\"topic_post_bookmarked\":false,\"topic_post_is_current_users\":null,\"topic_post_number\":1,\"topic_post_user\":{\"id\":68831,\"username\":\"Griffin2326\",\"name\":\"Griffin Miller\",\"avatar_template\":\"/letter_avatar_proxy/v4/letter/g/49beb7/{size}.png\"},\"posters\":[{\"extras\":null,\"description\":\"Original Poster\",\"user\":{\"id\":68831,\"username\":\"Griffin2326\",\"name\":\"Griffin Miller\",\"avatar_template\":\"/letter_avatar_proxy/v4/letter/g/49beb7/{size}.png\",\"trust_level\":0}},{\"extras\":\"latest\",\"description\":\"Most Recent Poster\",\"user\":{\"id\":60033,\"username\":\"catrix\",\"name\":\"sam liu\",\"avatar_template\":\"/letter_avatar_proxy/v4/letter/c/dbc845/{size}.png\",\"trust_level\":2}}]},{\"fancy_title\":\"Path planner with Magicbot\",\"id\":473424,\"title\":\"Path planner with Magicbot\",\"slug\":\"path-planner-with-magicbot\",\"posts_count\":2,\"reply_count\":0,\"highest_post_number\":2,\"image_url\":null,\"created_at\":\"2024-10-22T01:42:14.469Z\",\"last_posted_at\":\"2024-10-22T03:43:30.150Z\",\"bumped\":true,\"bumped_at\":\"2024-10-22T03:43:30.150Z\",\"archetype\":\"regular\",\"unseen\":false,\"pinned\":false,\"unpinned\":null,\"excerpt\":\"Hello, we are planning on using Path Planner here at 5113 as we upgraded to swerve this year and want a good auton. However, we use Python with Magic Bot as we find it better, but Path Planner uses co…\",\"visible\":true,\"closed\":false,\"archived\":false,\"bookmarked\":null,\"liked\":null,\"tags\":[],\"tags_descriptions\":{},\"like_count\":0,\"views\":188,\"category_id\":77,\"featured_link\":null,\"has_accepted_answer\":false,\"sidecar_installed\":true,\"include_dominant_colour\":false,\"topic_post_id\":3437553,\"topic_post_liked\":false,\"topic_post_can_like\":false,\"topic_post_can_unlike\":false,\"topic_post_bookmarked\":false,\"topic_post_is_current_users\":null,\"topic_post_number\":1,\"topic_post_user\":{\"id\":66385,\"username\":\"Ryanforce\",\"name\":\"Ryan Radtke\",\"avatar_template\":\"/user_avatar/www.chiefdelphi.com/ryanforce/{size}/228665_2.png\"},\"posters\":[{\"extras\":null,\"description\":\"Original Poster\",\"user\":{\"id\":66385,\"username\":\"Ryanforce\",\"name\":\"Ryan Radtke\",\"avatar_template\":\"/user_avatar/www.chiefdelphi.com/ryanforce/{size}/228665_2.png\",\"trust_level\":2}},{\"extras\":\"latest\",\"description\":\"Most Recent Poster\",\"user\":{\"id\":11063,\"username\":\"virtuald\",\"name\":\"Dustin Spicuzza\",\"avatar_template\":\"/user_avatar/www.chiefdelphi.com/virtuald/{size}/65268_2.png\",\"trust_level\":2}}]},{\"fancy_title\":\"‘robotpy’ is a package and cannot be directly executed\",\"id\":481920,\"title\":\"‘robotpy’ is a package and cannot be directly executed\",\"slug\":\"robotpy-is-a-package-and-cannot-be-directly-executed\",\"posts_count\":12,\"reply_count\":6,\"highest_post_number\":12,\"image_url\":null,\"created_at\":\"2025-01-15T18:47:29.361Z\",\"last_posted_at\":\"2025-01-17T16:31:15.807Z\",\"bumped\":true,\"bumped_at\":\"2025-01-17T16:31:15.807Z\",\"archetype\":\"regular\",\"unseen\":false,\"pinned\":false,\"unpinned\":null,\"excerpt\":\"To get the version of python, you can run py --version. It sounds like you have some kind of environmental conflict – do you have multiple versions of python installed? Try running these m…\",\"visible\":true,\"closed\":false,\"archived\":false,\"bookmarked\":null,\"liked\":null,\"tags\":[],\"tags_descriptions\":{},\"like_count\":0,\"views\":232,\"category_id\":77,\"featured_link\":null,\"has_accepted_answer\":true,\"sidecar_installed\":true,\"include_dominant_colour\":false,\"topic_post_id\":3485666,\"topic_post_liked\":false,\"topic_post_can_like\":false,\"topic_post_can_unlike\":false,\"topic_post_bookmarked\":true,\"topic_post_is_current_users\":null,\"topic_post_number\":11,\"topic_post_user\":{\"id\":11063,\"username\":\"virtuald\",\"name\":\"Dustin Spicuzza\",\"avatar_template\":\"/user_avatar/www.chiefdelphi.com/virtuald/{size}/65268_2.png\"},\"posters\":[{\"extras\":\"latest\",\"description\":\"Original Poster, Most Recent Poster\",\"user\":{\"id\":66158,\"username\":\"ahuang\",\"name\":\"ahuang\",\"avatar_template\":\"/letter_avatar_proxy/v4/letter/a/13edae/{size}.png\",\"trust_level\":1}},{\"extras\":null,\"description\":\"Frequent Poster, Accepted Answer\",\"user\":{\"id\":11063,\"username\":\"virtuald\",\"name\":\"Dustin Spicuzza\",\"avatar_template\":\"/user_avatar/www.chiefdelphi.com/virtuald/{size}/65268_2.png\",\"trust_level\":2}},{\"extras\":null,\"description\":\"Frequent Poster\",\"user\":{\"id\":62698,\"username\":\"CakeDeer6\",\"name\":\"Ethan Grieshop\",\"avatar_template\":\"/user_avatar/www.chiefdelphi.com/cakedeer6/{size}/264680_2.png\",\"trust_level\":2}}]},{\"fancy_title\":\"Shuffleboard cannot display videos from two cameras on co-processor alternatively\",\"id\":491635,\"title\":\"Shuffleboard cannot display videos from two cameras on co-processor alternatively\",\"slug\":\"shuffleboard-cannot-display-videos-from-two-cameras-on-co-processor-alternatively\",\"posts_count\":1,\"reply_count\":0,\"highest_post_number\":1,\"image_url\":\"https://www.chiefdelphi.com/uploads/default/original/3X/3/0/309f9d265f7f4d0fed12d2f6510f86f29696da99.png\",\"created_at\":\"2025-02-14T01:47:26.741Z\",\"last_posted_at\":\"2025-02-14T01:47:26.827Z\",\"bumped\":true,\"bumped_at\":\"2025-02-14T01:47:26.827Z\",\"archetype\":\"regular\",\"unseen\":false,\"pinned\":false,\"unpinned\":null,\"excerpt\":\"I am trying to use shuffleboard to accept video from two cameras on Raspberry Pi. The shuffleboard can display video from the two cameras simultaneously, but not alternatively. When streaming both cam…\",\"visible\":true,\"closed\":false,\"archived\":false,\"bookmarked\":null,\"liked\":null,\"tags\":[\"robot\"],\"tags_descriptions\":{},\"like_count\":0,\"views\":57,\"category_id\":77,\"featured_link\":null,\"has_accepted_answer\":false,\"sidecar_installed\":true,\"include_dominant_colour\":false,\"topic_post_id\":3526662,\"topic_post_liked\":false,\"topic_post_can_like\":false,\"topic_post_can_unlike\":false,\"topic_post_bookmarked\":false,\"topic_post_is_current_users\":null,\"topic_post_number\":1,\"topic_post_user\":{\"id\":73438,\"username\":\"Ryan1432\",\"name\":\"Ryan Wu\",\"avatar_template\":\"/letter_avatar_proxy/v4/letter/r/59ef9b/{size}.png\"},\"posters\":[{\"extras\":\"latest single\",\"description\":\"Original Poster, Most Recent Poster\",\"user\":{\"id\":73438,\"username\":\"Ryan1432\",\"name\":\"Ryan Wu\",\"avatar_template\":\"/letter_avatar_proxy/v4/letter/r/59ef9b/{size}.png\",\"trust_level\":1}}]}],\"tags\":[],\"tags_descriptions\":{},\"fancy_title\":\"Help with OpenCV in RobotPY\",\"id\":430205,\"title\":\"Help with OpenCV in RobotPY\",\"posts_count\":10,\"created_at\":\"2023-03-14T05:10:42.349Z\",\"views\":623,\"reply_count\":5,\"like_count\":1,\"last_posted_at\":\"2024-03-14T03:29:59.202Z\",\"visible\":true,\"closed\":true,\"archived\":false,\"has_summary\":false,\"archetype\":\"regular\",\"slug\":\"help-with-opencv-in-robotpy\",\"category_id\":77,\"word_count\":985,\"deleted_at\":null,\"user_id\":46258,\"featured_link\":null,\"pinned_globally\":false,\"pinned_at\":null,\"pinned_until\":null,\"image_url\":null,\"slow_mode_seconds\":0,\"draft\":null,\"draft_key\":\"topic_430205\",\"draft_sequence\":null,\"unpinned\":null,\"pinned\":false,\"current_post_number\":1,\"highest_post_number\":10,\"deleted_by\":null,\"actions_summary\":[{\"id\":4,\"count\":0,\"hidden\":false,\"can_act\":false},{\"id\":8,\"count\":0,\"hidden\":false,\"can_act\":false},{\"id\":10,\"count\":0,\"hidden\":false,\"can_act\":false},{\"id\":7,\"count\":0,\"hidden\":false,\"can_act\":false}],\"chunk_size\":20,\"bookmarked\":false,\"topic_timer\":null,\"message_bus_last_id\":0,\"participant_count\":4,\"show_read_indicator\":false,\"thumbnails\":null,\"slow_mode_enabled_until\":null,\"valid_reactions\":[\"heart\",\"laughing\",\"point_up\",\"+1\",\"-1\",\"100\",\"open_mouth\",\"cry\",\"question\",\"thinking\",\"call_me_hand\",\"hugs\",\"angry\"],\"user_chosen_thumbnail_url\":null,\"sidecar_installed\":true,\"can_vote\":false,\"vote_count\":0,\"user_voted\":false,\"discourse_zendesk_plugin_zendesk_id\":null,\"discourse_zendesk_plugin_zendesk_url\":\"https://your-url.zendesk.com/agent/tickets/\",\"details\":{\"can_edit\":false,\"notification_level\":1,\"participants\":[{\"id\":11063,\"username\":\"virtuald\",\"name\":\"Dustin Spicuzza\",\"avatar_template\":\"/user_avatar/www.chiefdelphi.com/virtuald/{size}/65268_2.png\",\"post_count\":3,\"primary_group_name\":null,\"flair_name\":null,\"flair_url\":null,\"flair_color\":null,\"flair_bg_color\":null,\"flair_group_id\":null,\"trust_level\":2},{\"id\":46258,\"username\":\"jdrevnyak\",\"name\":\"Jack\",\"avatar_template\":\"/letter_avatar_proxy/v4/letter/j/76d3ee/{size}.png\",\"post_count\":3,\"primary_group_name\":null,\"flair_name\":null,\"flair_url\":null,\"flair_color\":null,\"flair_bg_color\":null,\"flair_group_id\":null,\"trust_level\":1},{\"id\":31229,\"username\":\"auscompgeek\",\"name\":\"Davo\",\"avatar_template\":\"/user_avatar/www.chiefdelphi.com/auscompgeek/{size}/9867_2.png\",\"post_count\":2,\"primary_group_name\":null,\"flair_name\":null,\"flair_url\":null,\"flair_color\":null,\"flair_bg_color\":null,\"flair_group_id\":null,\"trust_level\":2},{\"id\":51415,\"username\":\"No767\",\"name\":\"Noelle\",\"avatar_template\":\"/user_avatar/www.chiefdelphi.com/no767/{size}/231760_2.png\",\"post_count\":1,\"primary_group_name\":null,\"flair_name\":null,\"flair_url\":null,\"flair_color\":null,\"flair_bg_color\":null,\"flair_group_id\":null,\"trust_level\":2}],\"created_by\":{\"id\":46258,\"username\":\"jdrevnyak\",\"name\":\"Jack\",\"avatar_template\":\"/letter_avatar_proxy/v4/letter/j/76d3ee/{size}.png\"},\"last_poster\":{\"id\":-1,\"username\":\"system\",\"name\":\"system\",\"avatar_template\":\"/uploads/default/original/4X/9/3/2/93234578e69f55873c63fc00fe2d0d85f23bce55.png\"},\"links\":[{\"url\":\"https://robotpy.readthedocs.io/projects/cscore/en/stable/cscore/CameraServer.html#cscore.CameraServer\",\"title\":\"CameraServer — RobotPy CSCore 2023.4.2.0 documentation\",\"internal\":false,\"attachment\":false,\"reflection\":false,\"clicks\":6,\"user_id\":11063,\"domain\":\"robotpy.readthedocs.io\",\"root_domain\":\"robotpy.readthedocs.io\"},{\"url\":\"https://github.com/robotpy/examples/tree/main/cscore-intermediate-vision\",\"title\":\"examples/cscore-intermediate-vision at main · robotpy/examples · GitHub\",\"internal\":false,\"attachment\":false,\"reflection\":false,\"clicks\":2,\"user_id\":46258,\"domain\":\"github.com\",\"root_domain\":\"github.com\"}]},\"bookmarks\":[]}"}
